0,1,2,3,4,5,6,7,8,9,10,11,12,13,14,15,16,17,18,19,20,21,22,23,24,25,26,27,28,29,30,31,32,33,34,35,36,37,38,39,40,41,42,43,44,45,46,47,48,49,50,51,52,53,54,55,56,57
-0.053399563,0.05763355,0.06652571,0.08350091,0.047349557,0.09837259,-0.080721825,-0.0032035112,0.05952227,0.030667812,-0.056176208,-0.044762418,-0.088298336,-0.063400686,-0.11752901,0.06965023,-0.07264567,0.06383382,-0.01991836,-0.034339294,-0.12406617,0.051995024,0.021763071,0.105465874,-0.022896133,-0.107587844,-0.075575635,0.04366532,0.09912434,0.07826251,0.07933277,-0.12782885,0.01912719,-0.087092794,0.0076568574,0.03827691,-0.035276517,0.03834492,-0.08445263,0.052676022,-0.06684366,-0.041897178,0.056239337,0.124504864,0.093299195,-0.07272269,-0.08257283,-0.06175091,0.10526681,-0.12021644,-0.11408155,-0.026119381,-0.033716448,-0.058098197,-0.021466829,0.0006034821,-0.07011212,0.03302081
-0.10624915,0.12539375,0.097631365,0.00841859,-0.110812865,-0.11766184,-0.08175488,0.010170668,-0.013111174,0.04316953,-0.04704523,-0.044377454,0.10441895,-0.027735613,0.017549366,0.08199632,-0.04902733,-0.07630278,-0.098653734,0.07982604,-0.034456804,0.01470606,-0.035769396,0.033887193,0.091776624,0.060824186,0.10005388,0.06813468,-0.059315354,-0.012916185,0.13071692,-0.07037291,-0.08998186,0.068744525,0.08840147,0.09097798,0.042094767,-0.09693743,0.06877369,-0.041746445,0.06345306,-0.0101598725,0.034377784,0.0077388138,0.09028092,0.12522486,-0.08881821,-0.038924463,-0.122051604,0.12536022,-0.13064557,-0.013574488,0.10538955,-0.106403835,-0.037839636,-0.035786927,0.12625831,0.13076943
